digraph Tree {
node [shape=box] ;
0 [label="TotalWorkingYears <= 1.5\ngini = 0.27\nsamples = 4401\nvalue = [3692, 709]"] ;
1 [label="NumCompaniesWorked <= 33.5\ngini = 0.5\nsamples = 275\nvalue = [141, 134]"] ;
0 -> 1 [labeldistance=2.5, labelangle=45, headlabel="True"] ;
2 [label="MonthlyIncome <= 112610.0\ngini = 0.495\nsamples = 239\nvalue = [108, 131]"] ;
1 -> 2 ;
3 [label="MonthlyIncome <= 23140.0\ngini = 0.473\nsamples = 203\nvalue = [78, 125]"] ;
2 -> 3 ;
4 [label="PercentSalaryHike <= 12.5\ngini = 0.245\nsamples = 21\nvalue = [18, 3]"] ;
3 -> 4 ;
5 [label="DistanceFromHome <= 6.5\ngini = 0.5\nsamples = 6\nvalue = [3, 3]"] ;
4 -> 5 ;
6 [label="gini = 0.0\nsamples = 3\nvalue = [0, 3]"] ;
5 -> 6 ;
7 [label="gini = 0.0\nsamples = 3\nvalue = [3, 0]"] ;
5 -> 7 ;
8 [label="gini = 0.0\nsamples = 15\nvalue = [15, 0]"] ;
4 -> 8 ;
9 [label="Age <= 23.5\ngini = 0.442\nsamples = 182\nvalue = [60, 122]"] ;
3 -> 9 ;
10 [label="Age <= 18.5\ngini = 0.269\nsamples = 75\nvalue = [12, 63]"] ;
9 -> 10 ;
11 [label="DistanceFromHome <= 4.0\ngini = 0.49\nsamples = 21\nvalue = [9, 12]"] ;
10 -> 11 ;
12 [label="PercentSalaryHike <= 20.0\ngini = 0.32\nsamples = 15\nvalue = [3, 12]"] ;
11 -> 12 ;
13 [label="gini = 0.0\nsamples = 12\nvalue = [0, 12]"] ;
12 -> 13 ;
14 [label="gini = 0.0\nsamples = 3\nvalue = [3, 0]"] ;
12 -> 14 ;
15 [label="gini = 0.0\nsamples = 6\nvalue = [6, 0]"] ;
11 -> 15 ;
16 [label="MonthlyIncome <= 106255.0\ngini = 0.105\nsamples = 54\nvalue = [3, 51]"] ;
10 -> 16 ;
17 [label="gini = 0.0\nsamples = 51\nvalue = [0, 51]"] ;
16 -> 17 ;
18 [label="gini = 0.0\nsamples = 3\nvalue = [3, 0]"] ;
16 -> 18 ;
19 [label="MonthlyIncome <= 32530.0\ngini = 0.495\nsamples = 107\nvalue = [48, 59]"] ;
9 -> 19 ;
20 [label="PercentSalaryHike <= 23.5\ngini = 0.284\nsamples = 35\nvalue = [6, 29]"] ;
19 -> 20 ;
21 [label="TotalWorkingYears <= 0.5\ngini = 0.17\nsamples = 32\nvalue = [3, 29]"] ;
20 -> 21 ;
22 [label="gini = 0.0\nsamples = 3\nvalue = [3, 0]"] ;
21 -> 22 ;
23 [label="gini = 0.0\nsamples = 29\nvalue = [0, 29]"] ;
21 -> 23 ;
24 [label="gini = 0.0\nsamples = 3\nvalue = [3, 0]"] ;
20 -> 24 ;
25 [label="DistanceFromHome <= 11.5\ngini = 0.486\nsamples = 72\nvalue = [42, 30]"] ;
19 -> 25 ;
26 [label="MonthlyIncome <= 63965.0\ngini = 0.415\nsamples = 51\nvalue = [36, 15]"] ;
25 -> 26 ;
27 [label="gini = 0.0\nsamples = 30\nvalue = [30, 0]"] ;
26 -> 27 ;
28 [label="gini = 0.408\nsamples = 21\nvalue = [6, 15]"] ;
26 -> 28 ;
29 [label="MonthlyIncome <= 64960.0\ngini = 0.408\nsamples = 21\nvalue = [6, 15]"] ;
25 -> 29 ;
30 [label="gini = 0.0\nsamples = 15\nvalue = [0, 15]"] ;
29 -> 30 ;
31 [label="gini = 0.0\nsamples = 6\nvalue = [6, 0]"] ;
29 -> 31 ;
32 [label="JobRole <= 5.0\ngini = 0.278\nsamples = 36\nvalue = [30, 6]"] ;
2 -> 32 ;
33 [label="gini = 0.0\nsamples = 21\nvalue = [21, 0]"] ;
32 -> 33 ;
34 [label="DistanceFromHome <= 5.0\ngini = 0.48\nsamples = 15\nvalue = [9, 6]"] ;
32 -> 34 ;
35 [label="gini = 0.0\nsamples = 9\nvalue = [9, 0]"] ;
34 -> 35 ;
36 [label="gini = 0.0\nsamples = 6\nvalue = [0, 6]"] ;
34 -> 36 ;
37 [label="MonthlyIncome <= 25425.0\ngini = 0.153\nsamples = 36\nvalue = [33, 3]"] ;
1 -> 37 ;
38 [label="JobRole <= 6.5\ngini = 0.5\nsamples = 6\nvalue = [3, 3]"] ;
37 -> 38 ;
39 [label="gini = 0.0\nsamples = 3\nvalue = [0, 3]"] ;
38 -> 39 ;
40 [label="gini = 0.0\nsamples = 3\nvalue = [3, 0]"] ;
38 -> 40 ;
41 [label="gini = 0.0\nsamples = 30\nvalue = [30, 0]"] ;
37 -> 41 ;
42 [label="Age <= 33.5\ngini = 0.24\nsamples = 4126\nvalue = [3551, 575]"] ;
0 -> 42 [labeldistance=2.5, labelangle=-45, headlabel="False"] ;
43 [label="YearsAtCompany <= 3.5\ngini = 0.316\nsamples = 1482\nvalue = [1191, 291]"] ;
42 -> 43 ;
44 [label="YearsAtCompany <= 1.5\ngini = 0.425\nsamples = 450\nvalue = [312, 138]"] ;
43 -> 44 ;
45 [label="MonthlyIncome <= 70465.0\ngini = 0.5\nsamples = 66\nvalue = [33, 33]"] ;
44 -> 45 ;
46 [label="DistanceFromHome <= 5.0\ngini = 0.488\nsamples = 57\nvalue = [33, 24]"] ;
45 -> 46 ;
47 [label="MonthlyIncome <= 35480.0\ngini = 0.408\nsamples = 21\nvalue = [6, 15]"] ;
46 -> 47 ;
48 [label="gini = 0.0\nsamples = 12\nvalue = [0, 12]"] ;
47 -> 48 ;
49 [label="MonthlyIncome <= 51235.0\ngini = 0.444\nsamples = 9\nvalue = [6, 3]"] ;
47 -> 49 ;
50 [label="gini = 0.0\nsamples = 6\nvalue = [6, 0]"] ;
49 -> 50 ;
51 [label="gini = 0.0\nsamples = 3\nvalue = [0, 3]"] ;
49 -> 51 ;
52 [label="JobRole <= 6.5\ngini = 0.375\nsamples = 36\nvalue = [27, 9]"] ;
46 -> 52 ;
53 [label="gini = 0.0\nsamples = 18\nvalue = [18, 0]"] ;
52 -> 53 ;
54 [label="DistanceFromHome <= 9.5\ngini = 0.5\nsamples = 18\nvalue = [9, 9]"] ;
52 -> 54 ;
55 [label="gini = 0.0\nsamples = 3\nvalue = [3, 0]"] ;
54 -> 55 ;
56 [label="gini = 0.48\nsamples = 15\nvalue = [6, 9]"] ;
54 -> 56 ;
57 [label="gini = 0.0\nsamples = 9\nvalue = [0, 9]"] ;
45 -> 57 ;
58 [label="DistanceFromHome <= 7.5\ngini = 0.397\nsamples = 384\nvalue = [279, 105]"] ;
44 -> 58 ;
59 [label="MonthlyIncome <= 73705.0\ngini = 0.292\nsamples = 186\nvalue = [153, 33]"] ;
58 -> 59 ;
60 [label="MonthlyIncome <= 59150.0\ngini = 0.353\nsamples = 144\nvalue = [111, 33]"] ;
59 -> 60 ;
61 [label="PercentSalaryHike <= 13.5\ngini = 0.273\nsamples = 129\nvalue = [108, 21]"] ;
60 -> 61 ;
62 [label="gini = 0.401\nsamples = 54\nvalue = [39, 15]"] ;
61 -> 62 ;
63 [label="gini = 0.147\nsamples = 75\nvalue = [69, 6]"] ;
61 -> 63 ;
64 [label="DistanceFromHome <= 2.0\ngini = 0.32\nsamples = 15\nvalue = [3, 12]"] ;
60 -> 64 ;
65 [label="gini = 0.0\nsamples = 3\nvalue = [3, 0]"] ;
64 -> 65 ;
66 [label="gini = 0.0\nsamples = 12\nvalue = [0, 12]"] ;
64 -> 66 ;
67 [label="gini = 0.0\nsamples = 42\nvalue = [42, 0]"] ;
59 -> 67 ;
68 [label="MonthlyIncome <= 115880.0\ngini = 0.463\nsamples = 198\nvalue = [126, 72]"] ;
58 -> 68 ;
69 [label="TotalWorkingYears <= 6.5\ngini = 0.431\nsamples = 162\nvalue = [111, 51]"] ;
68 -> 69 ;
70 [label="MonthlyIncome <= 34745.0\ngini = 0.462\nsamples = 141\nvalue = [90, 51]"] ;
69 -> 70 ;
71 [label="gini = 0.499\nsamples = 57\nvalue = [27, 30]"] ;
70 -> 71 ;
72 [label="gini = 0.375\nsamples = 84\nvalue = [63, 21]"] ;
70 -> 72 ;
73 [label="gini = 0.0\nsamples = 21\nvalue = [21, 0]"] ;
69 -> 73 ;
74 [label="PercentSalaryHike <= 19.5\ngini = 0.486\nsamples = 36\nvalue = [15, 21]"] ;
68 -> 74 ;
75 [label="TotalWorkingYears <= 5.5\ngini = 0.42\nsamples = 30\nvalue = [9, 21]"] ;
74 -> 75 ;
76 [label="gini = 0.5\nsamples = 18\nvalue = [9, 9]"] ;
75 -> 76 ;
77 [label="gini = 0.0\nsamples = 12\nvalue = [0, 12]"] ;
75 -> 77 ;
78 [label="gini = 0.0\nsamples = 6\nvalue = [6, 0]"] ;
74 -> 78 ;
79 [label="DistanceFromHome <= 26.5\ngini = 0.253\nsamples = 1032\nvalue = [879, 153]"] ;
43 -> 79 ;
80 [label="TotalWorkingYears <= 5.5\ngini = 0.237\nsamples = 981\nvalue = [846, 135]"] ;
79 -> 80 ;
81 [label="MonthlyIncome <= 22455.0\ngini = 0.071\nsamples = 162\nvalue = [156, 6]"] ;
80 -> 81 ;
82 [label="PercentSalaryHike <= 17.0\ngini = 0.5\nsamples = 6\nvalue = [3, 3]"] ;
81 -> 82 ;
83 [label="gini = 0.0\nsamples = 3\nvalue = [3, 0]"] ;
82 -> 83 ;
84 [label="gini = 0.0\nsamples = 3\nvalue = [0, 3]"] ;
82 -> 84 ;
85 [label="Age <= 23.5\ngini = 0.038\nsamples = 156\nvalue = [153, 3]"] ;
81 -> 85 ;
86 [label="JobRole <= 2.5\ngini = 0.219\nsamples = 24\nvalue = [21, 3]"] ;
85 -> 86 ;
87 [label="gini = 0.5\nsamples = 6\nvalue = [3, 3]"] ;
86 -> 87 ;
88 [label="gini = 0.0\nsamples = 18\nvalue = [18, 0]"] ;
86 -> 88 ;
89 [label="gini = 0.0\nsamples = 132\nvalue = [132, 0]"] ;
85 -> 89 ;
90 [label="YearsAtCompany <= 4.5\ngini = 0.265\nsamples = 819\nvalue = [690, 129]"] ;
80 -> 90 ;
91 [label="PercentSalaryHike <= 12.5\ngini = 0.465\nsamples = 57\nvalue = [36, 21]"] ;
90 -> 91 ;
92 [label="gini = 0.0\nsamples = 18\nvalue = [18, 0]"] ;
91 -> 92 ;
93 [label="MonthlyIncome <= 93300.0\ngini = 0.497\nsamples = 39\nvalue = [18, 21]"] ;
91 -> 93 ;
94 [label="gini = 0.48\nsamples = 30\nvalue = [18, 12]"] ;
93 -> 94 ;
95 [label="gini = 0.0\nsamples = 9\nvalue = [0, 9]"] ;
93 -> 95 ;
96 [label="Age <= 26.5\ngini = 0.243\nsamples = 762\nvalue = [654, 108]"] ;
90 -> 96 ;
97 [label="DistanceFromHome <= 20.5\ngini = 0.4\nsamples = 87\nvalue = [63, 24]"] ;
96 -> 97 ;
98 [label="gini = 0.346\nsamples = 81\nvalue = [63, 18]"] ;
97 -> 98 ;
99 [label="gini = 0.0\nsamples = 6\nvalue = [0, 6]"] ;
97 -> 99 ;
100 [label="DistanceFromHome <= 6.5\ngini = 0.218\nsamples = 675\nvalue = [591, 84]"] ;
96 -> 100 ;
101 [label="gini = 0.292\nsamples = 321\nvalue = [264, 57]"] ;
100 -> 101 ;
102 [label="gini = 0.141\nsamples = 354\nvalue = [327, 27]"] ;
100 -> 102 ;
103 [label="YearsAtCompany <= 7.5\ngini = 0.457\nsamples = 51\nvalue = [33, 18]"] ;
79 -> 103 ;
104 [label="MonthlyIncome <= 46375.0\ngini = 0.48\nsamples = 30\nvalue = [12, 18]"] ;
103 -> 104 ;
105 [label="gini = 0.0\nsamples = 15\nvalue = [0, 15]"] ;
104 -> 105 ;
106 [label="DistanceFromHome <= 27.5\ngini = 0.32\nsamples = 15\nvalue = [12, 3]"] ;
104 -> 106 ;
107 [label="gini = 0.0\nsamples = 3\nvalue = [0, 3]"] ;
106 -> 107 ;
108 [label="gini = 0.0\nsamples = 12\nvalue = [12, 0]"] ;
106 -> 108 ;
109 [label="gini = 0.0\nsamples = 21\nvalue = [21, 0]"] ;
103 -> 109 ;
110 [label="TotalWorkingYears <= 39.0\ngini = 0.192\nsamples = 2644\nvalue = [2360, 284]"] ;
42 -> 110 ;
111 [label="MonthlyIncome <= 10300.0\ngini = 0.189\nsamples = 2638\nvalue = [2360, 278]"] ;
110 -> 111 ;
112 [label="gini = 0.0\nsamples = 3\nvalue = [0, 3]"] ;
111 -> 112 ;
113 [label="YearsAtCompany <= 1.5\ngini = 0.187\nsamples = 2635\nvalue = [2360, 275]"] ;
111 -> 113 ;
114 [label="MonthlyIncome <= 34145.0\ngini = 0.305\nsamples = 303\nvalue = [246, 57]"] ;
113 -> 114 ;
115 [label="TotalWorkingYears <= 3.5\ngini = 0.067\nsamples = 87\nvalue = [84, 3]"] ;
114 -> 115 ;
116 [label="JobRole <= 4.5\ngini = 0.5\nsamples = 6\nvalue = [3, 3]"] ;
115 -> 116 ;
117 [label="gini = 0.0\nsamples = 3\nvalue = [3, 0]"] ;
116 -> 117 ;
118 [label="gini = 0.0\nsamples = 3\nvalue = [0, 3]"] ;
116 -> 118 ;
119 [label="gini = 0.0\nsamples = 81\nvalue = [81, 0]"] ;
115 -> 119 ;
120 [label="MonthlyIncome <= 36770.0\ngini = 0.375\nsamples = 216\nvalue = [162, 54]"] ;
114 -> 120 ;
121 [label="gini = 0.0\nsamples = 6\nvalue = [0, 6]"] ;
120 -> 121 ;
122 [label="DistanceFromHome <= 2.5\ngini = 0.353\nsamples = 210\nvalue = [162, 48]"] ;
120 -> 122 ;
123 [label="gini = 0.466\nsamples = 81\nvalue = [51, 30]"] ;
122 -> 123 ;
124 [label="gini = 0.24\nsamples = 129\nvalue = [111, 18]"] ;
122 -> 124 ;
125 [label="DistanceFromHome <= 3.5\ngini = 0.169\nsamples = 2332\nvalue = [2114, 218]"] ;
113 -> 125 ;
126 [label="PercentSalaryHike <= 18.5\ngini = 0.11\nsamples = 770\nvalue = [725, 45]"] ;
125 -> 126 ;
127 [label="YearsAtCompany <= 16.5\ngini = 0.08\nsamples = 644\nvalue = [617, 27]"] ;
126 -> 127 ;
128 [label="gini = 0.055\nsamples = 533\nvalue = [518, 15]"] ;
127 -> 128 ;
129 [label="gini = 0.193\nsamples = 111\nvalue = [99, 12]"] ;
127 -> 129 ;
130 [label="YearsAtCompany <= 2.5\ngini = 0.245\nsamples = 126\nvalue = [108, 18]"] ;
126 -> 130 ;
131 [label="gini = 0.0\nsamples = 3\nvalue = [0, 3]"] ;
130 -> 131 ;
132 [label="gini = 0.214\nsamples = 123\nvalue = [108, 15]"] ;
130 -> 132 ;
133 [label="DistanceFromHome <= 24.5\ngini = 0.197\nsamples = 1562\nvalue = [1389, 173]"] ;
125 -> 133 ;
134 [label="PercentSalaryHike <= 24.5\ngini = 0.218\nsamples = 1365\nvalue = [1195, 170]"] ;
133 -> 134 ;
135 [label="gini = 0.211\nsamples = 1344\nvalue = [1183, 161]"] ;
134 -> 135 ;
136 [label="gini = 0.49\nsamples = 21\nvalue = [12, 9]"] ;
134 -> 136 ;
137 [label="JobRole <= 7.5\ngini = 0.03\nsamples = 197\nvalue = [194, 3]"] ;
133 -> 137 ;
138 [label="gini = 0.0\nsamples = 185\nvalue = [185, 0]"] ;
137 -> 138 ;
139 [label="gini = 0.375\nsamples = 12\nvalue = [9, 3]"] ;
137 -> 139 ;
140 [label="gini = 0.0\nsamples = 6\nvalue = [0, 6]"] ;
110 -> 140 ;
}