digraph Tree {
node [shape=box] ;
0 [label="Income <= 113.5\ngini = 0.174\nsamples = 5000\nvalue = [4520, 480]"] ;
1 [label="CCAvg <= 2.95\ngini = 0.041\nsamples = 4021\nvalue = [3937, 84]"] ;
0 -> 1 [labeldistance=2.5, labelangle=45, headlabel="True"] ;
2 [label="Income <= 106.5\ngini = 0.007\nsamples = 3723\nvalue = [3710, 13]"] ;
1 -> 2 ;
3 [label="gini = 0.0\nsamples = 3629\nvalue = [3629, 0]"] ;
2 -> 3 ;
4 [label="Education <= 1.5\ngini = 0.238\nsamples = 94\nvalue = [81, 13]"] ;
2 -> 4 ;
5 [label="CCAvg <= 0.35\ngini = 0.127\nsamples = 44\nvalue = [41, 3]"] ;
4 -> 5 ;
6 [label="CCAvg <= 0.25\ngini = 0.32\nsamples = 10\nvalue = [8, 2]"] ;
5 -> 6 ;
7 [label="Income <= 112.5\ngini = 0.219\nsamples = 8\nvalue = [7, 1]"] ;
6 -> 7 ;
8 [label="gini = 0.0\nsamples = 4\nvalue = [4, 0]"] ;
7 -> 8 ;
9 [label="gini = 0.375\nsamples = 4\nvalue = [3, 1]"] ;
7 -> 9 ;
10 [label="Income <= 111.5\ngini = 0.5\nsamples = 2\nvalue = [1, 1]"] ;
6 -> 10 ;
11 [label="gini = 0.0\nsamples = 1\nvalue = [0, 1]"] ;
10 -> 11 ;
12 [label="gini = 0.0\nsamples = 1\nvalue = [1, 0]"] ;
10 -> 12 ;
13 [label="Income <= 109.5\ngini = 0.057\nsamples = 34\nvalue = [33, 1]"] ;
5 -> 13 ;
14 [label="CCAvg <= 1.75\ngini = 0.153\nsamples = 12\nvalue = [11, 1]"] ;
13 -> 14 ;
15 [label="gini = 0.0\nsamples = 6\nvalue = [6, 0]"] ;
14 -> 15 ;
16 [label="CCAvg <= 1.9\ngini = 0.278\nsamples = 6\nvalue = [5, 1]"] ;
14 -> 16 ;
17 [label="gini = 0.0\nsamples = 1\nvalue = [0, 1]"] ;
16 -> 17 ;
18 [label="gini = 0.0\nsamples = 5\nvalue = [5, 0]"] ;
16 -> 18 ;
19 [label="gini = 0.0\nsamples = 22\nvalue = [22, 0]"] ;
13 -> 19 ;
20 [label="CCAvg <= 1.65\ngini = 0.32\nsamples = 50\nvalue = [40, 10]"] ;
4 -> 20 ;
21 [label="CCAvg <= 0.3\ngini = 0.457\nsamples = 17\nvalue = [11, 6]"] ;
20 -> 21 ;
22 [label="gini = 0.0\nsamples = 3\nvalue = [3, 0]"] ;
21 -> 22 ;
23 [label="CCAvg <= 0.7\ngini = 0.49\nsamples = 14\nvalue = [8, 6]"] ;
21 -> 23 ;
24 [label="gini = 0.0\nsamples = 2\nvalue = [0, 2]"] ;
23 -> 24 ;
25 [label="CCAvg <= 1.55\ngini = 0.444\nsamples = 12\nvalue = [8, 4]"] ;
23 -> 25 ;
26 [label="CCAvg <= 1.25\ngini = 0.397\nsamples = 11\nvalue = [8, 3]"] ;
25 -> 26 ;
27 [label="CCAvg <= 1.05\ngini = 0.469\nsamples = 8\nvalue = [5, 3]"] ;
26 -> 27 ;
28 [label="CCAvg <= 0.9\ngini = 0.32\nsamples = 5\nvalue = [4, 1]"] ;
27 -> 28 ;
29 [label="Education <= 2.5\ngini = 0.444\nsamples = 3\nvalue = [2, 1]"] ;
28 -> 29 ;
30 [label="gini = 0.0\nsamples = 1\nvalue = [1, 0]"] ;
29 -> 30 ;
31 [label="gini = 0.5\nsamples = 2\nvalue = [1, 1]"] ;
29 -> 31 ;
32 [label="gini = 0.0\nsamples = 2\nvalue = [2, 0]"] ;
28 -> 32 ;
33 [label="Income <= 109.5\ngini = 0.444\nsamples = 3\nvalue = [1, 2]"] ;
27 -> 33 ;
34 [label="gini = 0.0\nsamples = 1\nvalue = [1, 0]"] ;
33 -> 34 ;
35 [label="gini = 0.0\nsamples = 2\nvalue = [0, 2]"] ;
33 -> 35 ;
36 [label="gini = 0.0\nsamples = 3\nvalue = [3, 0]"] ;
26 -> 36 ;
37 [label="gini = 0.0\nsamples = 1\nvalue = [0, 1]"] ;
25 -> 37 ;
38 [label="Income <= 108.5\ngini = 0.213\nsamples = 33\nvalue = [29, 4]"] ;
20 -> 38 ;
39 [label="CCAvg <= 1.85\ngini = 0.5\nsamples = 4\nvalue = [2, 2]"] ;
38 -> 39 ;
40 [label="gini = 0.0\nsamples = 1\nvalue = [1, 0]"] ;
39 -> 40 ;
41 [label="CCAvg <= 2.15\ngini = 0.444\nsamples = 3\nvalue = [1, 2]"] ;
39 -> 41 ;
42 [label="gini = 0.0\nsamples = 1\nvalue = [0, 1]"] ;
41 -> 42 ;
43 [label="CCAvg <= 2.575\ngini = 0.5\nsamples = 2\nvalue = [1, 1]"] ;
41 -> 43 ;
44 [label="gini = 0.0\nsamples = 1\nvalue = [1, 0]"] ;
43 -> 44 ;
45 [label="gini = 0.0\nsamples = 1\nvalue = [0, 1]"] ;
43 -> 45 ;
46 [label="CCAvg <= 2.45\ngini = 0.128\nsamples = 29\nvalue = [27, 2]"] ;
38 -> 46 ;
47 [label="CCAvg <= 1.75\ngini = 0.074\nsamples = 26\nvalue = [25, 1]"] ;
46 -> 47 ;
48 [label="Income <= 112.5\ngini = 0.32\nsamples = 5\nvalue = [4, 1]"] ;
47 -> 48 ;
49 [label="gini = 0.0\nsamples = 3\nvalue = [3, 0]"] ;
48 -> 49 ;
50 [label="Education <= 2.5\ngini = 0.5\nsamples = 2\nvalue = [1, 1]"] ;
48 -> 50 ;
51 [label="gini = 0.0\nsamples = 1\nvalue = [0, 1]"] ;
50 -> 51 ;
52 [label="gini = 0.0\nsamples = 1\nvalue = [1, 0]"] ;
50 -> 52 ;
53 [label="gini = 0.0\nsamples = 21\nvalue = [21, 0]"] ;
47 -> 53 ;
54 [label="CCAvg <= 2.6\ngini = 0.444\nsamples = 3\nvalue = [2, 1]"] ;
46 -> 54 ;
55 [label="gini = 0.0\nsamples = 1\nvalue = [0, 1]"] ;
54 -> 55 ;
56 [label="gini = 0.0\nsamples = 2\nvalue = [2, 0]"] ;
54 -> 56 ;
57 [label="Income <= 82.5\ngini = 0.363\nsamples = 298\nvalue = [227, 71]"] ;
1 -> 57 ;
58 [label="CCAvg <= 3.55\ngini = 0.142\nsamples = 117\nvalue = [108, 9]"] ;
57 -> 58 ;
59 [label="CCAvg <= 3.45\ngini = 0.269\nsamples = 50\nvalue = [42, 8]"] ;
58 -> 59 ;
60 [label="CCAvg <= 3.25\ngini = 0.245\nsamples = 49\nvalue = [42, 7]"] ;
59 -> 60 ;
61 [label="Income <= 70.0\ngini = 0.188\nsamples = 38\nvalue = [34, 4]"] ;
60 -> 61 ;
62 [label="CCAvg <= 3.15\ngini = 0.32\nsamples = 20\nvalue = [16, 4]"] ;
61 -> 62 ;
63 [label="Income <= 63.5\ngini = 0.48\nsamples = 10\nvalue = [6, 4]"] ;
62 -> 63 ;
64 [label="Income <= 60.5\ngini = 0.278\nsamples = 6\nvalue = [5, 1]"] ;
63 -> 64 ;
65 [label="Income <= 59.5\ngini = 0.444\nsamples = 3\nvalue = [2, 1]"] ;
64 -> 65 ;
66 [label="gini = 0.0\nsamples = 2\nvalue = [2, 0]"] ;
65 -> 66 ;
67 [label="gini = 0.0\nsamples = 1\nvalue = [0, 1]"] ;
65 -> 67 ;
68 [label="gini = 0.0\nsamples = 3\nvalue = [3, 0]"] ;
64 -> 68 ;
69 [label="Education <= 1.5\ngini = 0.375\nsamples = 4\nvalue = [1, 3]"] ;
63 -> 69 ;
70 [label="Income <= 66.5\ngini = 0.5\nsamples = 2\nvalue = [1, 1]"] ;
69 -> 70 ;
71 [label="gini = 0.0\nsamples = 1\nvalue = [0, 1]"] ;
70 -> 71 ;
72 [label="gini = 0.0\nsamples = 1\nvalue = [1, 0]"] ;
70 -> 72 ;
73 [label="gini = 0.0\nsamples = 2\nvalue = [0, 2]"] ;
69 -> 73 ;
74 [label="gini = 0.0\nsamples = 10\nvalue = [10, 0]"] ;
62 -> 74 ;
75 [label="gini = 0.0\nsamples = 18\nvalue = [18, 0]"] ;
61 -> 75 ;
76 [label="CCAvg <= 3.35\ngini = 0.397\nsamples = 11\nvalue = [8, 3]"] ;
60 -> 76 ;
77 [label="gini = 0.0\nsamples = 2\nvalue = [0, 2]"] ;
76 -> 77 ;
78 [label="Education <= 1.5\ngini = 0.198\nsamples = 9\nvalue = [8, 1]"] ;
76 -> 78 ;
79 [label="gini = 0.0\nsamples = 7\nvalue = [7, 0]"] ;
78 -> 79 ;
80 [label="Income <= 81.5\ngini = 0.5\nsamples = 2\nvalue = [1, 1]"] ;
78 -> 80 ;
81 [label="gini = 0.0\nsamples = 1\nvalue = [0, 1]"] ;
80 -> 81 ;
82 [label="gini = 0.0\nsamples = 1\nvalue = [1, 0]"] ;
80 -> 82 ;
83 [label="gini = 0.0\nsamples = 1\nvalue = [0, 1]"] ;
59 -> 83 ;
84 [label="Income <= 81.5\ngini = 0.029\nsamples = 67\nvalue = [66, 1]"] ;
58 -> 84 ;
85 [label="gini = 0.0\nsamples = 60\nvalue = [60, 0]"] ;
84 -> 85 ;
86 [label="CCAvg <= 3.75\ngini = 0.245\nsamples = 7\nvalue = [6, 1]"] ;
84 -> 86 ;
87 [label="Education <= 2.5\ngini = 0.444\nsamples = 3\nvalue = [2, 1]"] ;
86 -> 87 ;
88 [label="CCAvg <= 3.65\ngini = 0.5\nsamples = 2\nvalue = [1, 1]"] ;
87 -> 88 ;
89 [label="gini = 0.0\nsamples = 1\nvalue = [1, 0]"] ;
88 -> 89 ;
90 [label="gini = 0.0\nsamples = 1\nvalue = [0, 1]"] ;
88 -> 90 ;
91 [label="gini = 0.0\nsamples = 1\nvalue = [1, 0]"] ;
87 -> 91 ;
92 [label="gini = 0.0\nsamples = 4\nvalue = [4, 0]"] ;
86 -> 92 ;
93 [label="Education <= 1.5\ngini = 0.45\nsamples = 181\nvalue = [119, 62]"] ;
57 -> 93 ;
94 [label="CCAvg <= 4.25\ngini = 0.299\nsamples = 93\nvalue = [76, 17]"] ;
93 -> 94 ;
95 [label="CCAvg <= 4.05\ngini = 0.44\nsamples = 46\nvalue = [31, 15]"] ;
94 -> 95 ;
96 [label="Income <= 83.5\ngini = 0.402\nsamples = 43\nvalue = [31, 12]"] ;
95 -> 96 ;
97 [label="CCAvg <= 3.25\ngini = 0.32\nsamples = 5\nvalue = [1, 4]"] ;
96 -> 97 ;
98 [label="gini = 0.0\nsamples = 2\nvalue = [0, 2]"] ;
97 -> 98 ;
99 [label="CCAvg <= 3.6\ngini = 0.444\nsamples = 3\nvalue = [1, 2]"] ;
97 -> 99 ;
100 [label="gini = 0.5\nsamples = 2\nvalue = [1, 1]"] ;
99 -> 100 ;
101 [label="gini = 0.0\nsamples = 1\nvalue = [0, 1]"] ;
99 -> 101 ;
102 [label="CCAvg <= 3.05\ngini = 0.332\nsamples = 38\nvalue = [30, 8]"] ;
96 -> 102 ;
103 [label="gini = 0.0\nsamples = 2\nvalue = [0, 2]"] ;
102 -> 103 ;
104 [label="Income <= 100.0\ngini = 0.278\nsamples = 36\nvalue = [30, 6]"] ;
102 -> 104 ;
105 [label="gini = 0.0\nsamples = 15\nvalue = [15, 0]"] ;
104 -> 105 ;
106 [label="Income <= 109.5\ngini = 0.408\nsamples = 21\nvalue = [15, 6]"] ;
104 -> 106 ;
107 [label="Income <= 103.5\ngini = 0.5\nsamples = 12\nvalue = [6, 6]"] ;
106 -> 107 ;
108 [label="CCAvg <= 3.317\ngini = 0.375\nsamples = 4\nvalue = [1, 3]"] ;
107 -> 108 ;
109 [label="gini = 0.0\nsamples = 1\nvalue = [1, 0]"] ;
108 -> 109 ;
110 [label="gini = 0.0\nsamples = 3\nvalue = [0, 3]"] ;
108 -> 110 ;
111 [label="Income <= 108.5\ngini = 0.469\nsamples = 8\nvalue = [5, 3]"] ;
107 -> 111 ;
112 [label="CCAvg <= 3.25\ngini = 0.408\nsamples = 7\nvalue = [5, 2]"] ;
111 -> 112 ;
113 [label="gini = 0.0\nsamples = 1\nvalue = [0, 1]"] ;
112 -> 113 ;
114 [label="Income <= 104.5\ngini = 0.278\nsamples = 6\nvalue = [5, 1]"] ;
112 -> 114 ;
115 [label="CCAvg <= 3.55\ngini = 0.5\nsamples = 2\nvalue = [1, 1]"] ;
114 -> 115 ;
116 [label="gini = 0.0\nsamples = 1\nvalue = [1, 0]"] ;
115 -> 116 ;
117 [label="gini = 0.0\nsamples = 1\nvalue = [0, 1]"] ;
115 -> 117 ;
118 [label="gini = 0.0\nsamples = 4\nvalue = [4, 0]"] ;
114 -> 118 ;
119 [label="gini = 0.0\nsamples = 1\nvalue = [0, 1]"] ;
111 -> 119 ;
120 [label="gini = 0.0\nsamples = 9\nvalue = [9, 0]"] ;
106 -> 120 ;
121 [label="gini = 0.0\nsamples = 3\nvalue = [0, 3]"] ;
95 -> 121 ;
122 [label="CCAvg <= 4.65\ngini = 0.081\nsamples = 47\nvalue = [45, 2]"] ;
94 -> 122 ;
123 [label="Income <= 100.0\ngini = 0.188\nsamples = 19\nvalue = [17, 2]"] ;
122 -> 123 ;
124 [label="Income <= 96.5\ngini = 0.408\nsamples = 7\nvalue = [5, 2]"] ;
123 -> 124 ;
125 [label="gini = 0.0\nsamples = 5\nvalue = [5, 0]"] ;
124 -> 125 ;
126 [label="gini = 0.0\nsamples = 2\nvalue = [0, 2]"] ;
124 -> 126 ;
127 [label="gini = 0.0\nsamples = 12\nvalue = [12, 0]"] ;
123 -> 127 ;
128 [label="gini = 0.0\nsamples = 28\nvalue = [28, 0]"] ;
122 -> 128 ;
129 [label="Income <= 92.5\ngini = 0.5\nsamples = 88\nvalue = [43, 45]"] ;
93 -> 129 ;
130 [label="Education <= 2.5\ngini = 0.388\nsamples = 38\nvalue = [28, 10]"] ;
129 -> 130 ;
131 [label="CCAvg <= 3.75\ngini = 0.5\nsamples = 10\nvalue = [5, 5]"] ;
130 -> 131 ;
132 [label="Income <= 87.5\ngini = 0.408\nsamples = 7\nvalue = [5, 2]"] ;
131 -> 132 ;
133 [label="CCAvg <= 3.25\ngini = 0.278\nsamples = 6\nvalue = [5, 1]"] ;
132 -> 133 ;
134 [label="CCAvg <= 3.05\ngini = 0.444\nsamples = 3\nvalue = [2, 1]"] ;
133 -> 134 ;
135 [label="gini = 0.0\nsamples = 2\nvalue = [2, 0]"] ;
134 -> 135 ;
136 [label="gini = 0.0\nsamples = 1\nvalue = [0, 1]"] ;
134 -> 136 ;
137 [label="gini = 0.0\nsamples = 3\nvalue = [3, 0]"] ;
133 -> 137 ;
138 [label="gini = 0.0\nsamples = 1\nvalue = [0, 1]"] ;
132 -> 138 ;
139 [label="gini = 0.0\nsamples = 3\nvalue = [0, 3]"] ;
131 -> 139 ;
140 [label="CCAvg <= 3.65\ngini = 0.293\nsamples = 28\nvalue = [23, 5]"] ;
130 -> 140 ;
141 [label="CCAvg <= 3.2\ngini = 0.5\nsamples = 10\nvalue = [5, 5]"] ;
140 -> 141 ;
142 [label="gini = 0.0\nsamples = 4\nvalue = [4, 0]"] ;
141 -> 142 ;
143 [label="CCAvg <= 3.5\ngini = 0.278\nsamples = 6\nvalue = [1, 5]"] ;
141 -> 143 ;
144 [label="gini = 0.0\nsamples = 4\nvalue = [0, 4]"] ;
143 -> 144 ;
145 [label="gini = 0.5\nsamples = 2\nvalue = [1, 1]"] ;
143 -> 145 ;
146 [label="gini = 0.0\nsamples = 18\nvalue = [18, 0]"] ;
140 -> 146 ;
147 [label="Income <= 109.0\ngini = 0.42\nsamples = 50\nvalue = [15, 35]"] ;
129 -> 147 ;
148 [label="CCAvg <= 3.95\ngini = 0.459\nsamples = 42\nvalue = [15, 27]"] ;
147 -> 148 ;
149 [label="Income <= 106.5\ngini = 0.365\nsamples = 25\nvalue = [6, 19]"] ;
148 -> 149 ;
150 [label="CCAvg <= 3.45\ngini = 0.308\nsamples = 21\nvalue = [4, 17]"] ;
149 -> 150 ;
151 [label="CCAvg <= 3.25\ngini = 0.42\nsamples = 10\nvalue = [3, 7]"] ;
150 -> 151 ;
152 [label="Education <= 2.5\ngini = 0.245\nsamples = 7\nvalue = [1, 6]"] ;
151 -> 152 ;
153 [label="gini = 0.0\nsamples = 4\nvalue = [0, 4]"] ;
152 -> 153 ;
154 [label="Income <= 94.0\ngini = 0.444\nsamples = 3\nvalue = [1, 2]"] ;
152 -> 154 ;
155 [label="gini = 0.0\nsamples = 1\nvalue = [0, 1]"] ;
154 -> 155 ;
156 [label="Income <= 97.0\ngini = 0.5\nsamples = 2\nvalue = [1, 1]"] ;
154 -> 156 ;
157 [label="gini = 0.0\nsamples = 1\nvalue = [1, 0]"] ;
156 -> 157 ;
158 [label="gini = 0.0\nsamples = 1\nvalue = [0, 1]"] ;
156 -> 158 ;
159 [label="Education <= 2.5\ngini = 0.444\nsamples = 3\nvalue = [2, 1]"] ;
151 -> 159 ;
160 [label="gini = 0.0\nsamples = 2\nvalue = [2, 0]"] ;
159 -> 160 ;
161 [label="gini = 0.0\nsamples = 1\nvalue = [0, 1]"] ;
159 -> 161 ;
162 [label="Income <= 98.5\ngini = 0.165\nsamples = 11\nvalue = [1, 10]"] ;
150 -> 162 ;
163 [label="gini = 0.0\nsamples = 6\nvalue = [0, 6]"] ;
162 -> 163 ;
164 [label="Income <= 100.0\ngini = 0.32\nsamples = 5\nvalue = [1, 4]"] ;
162 -> 164 ;
165 [label="CCAvg <= 3.65\ngini = 0.5\nsamples = 2\nvalue = [1, 1]"] ;
164 -> 165 ;
166 [label="gini = 0.0\nsamples = 1\nvalue = [0, 1]"] ;
165 -> 166 ;
167 [label="gini = 0.0\nsamples = 1\nvalue = [1, 0]"] ;
165 -> 167 ;
168 [label="gini = 0.0\nsamples = 3\nvalue = [0, 3]"] ;
164 -> 168 ;
169 [label="Education <= 2.5\ngini = 0.5\nsamples = 4\nvalue = [2, 2]"] ;
149 -> 169 ;
170 [label="CCAvg <= 3.533\ngini = 0.444\nsamples = 3\nvalue = [1, 2]"] ;
169 -> 170 ;
171 [label="gini = 0.0\nsamples = 1\nvalue = [1, 0]"] ;
170 -> 171 ;
172 [label="gini = 0.0\nsamples = 2\nvalue = [0, 2]"] ;
170 -> 172 ;
173 [label="gini = 0.0\nsamples = 1\nvalue = [1, 0]"] ;
169 -> 173 ;
174 [label="Education <= 2.5\ngini = 0.498\nsamples = 17\nvalue = [9, 8]"] ;
148 -> 174 ;
175 [label="gini = 0.0\nsamples = 4\nvalue = [0, 4]"] ;
174 -> 175 ;
176 [label="CCAvg <= 4.65\ngini = 0.426\nsamples = 13\nvalue = [9, 4]"] ;
174 -> 176 ;
177 [label="Income <= 100.5\ngini = 0.298\nsamples = 11\nvalue = [9, 2]"] ;
176 -> 177 ;
178 [label="gini = 0.0\nsamples = 5\nvalue = [5, 0]"] ;
177 -> 178 ;
179 [label="Income <= 103.5\ngini = 0.444\nsamples = 6\nvalue = [4, 2]"] ;
177 -> 179 ;
180 [label="CCAvg <= 4.25\ngini = 0.444\nsamples = 3\nvalue = [1, 2]"] ;
179 -> 180 ;
181 [label="gini = 0.0\nsamples = 1\nvalue = [0, 1]"] ;
180 -> 181 ;
182 [label="Income <= 102.5\ngini = 0.5\nsamples = 2\nvalue = [1, 1]"] ;
180 -> 182 ;
183 [label="gini = 0.0\nsamples = 1\nvalue = [0, 1]"] ;
182 -> 183 ;
184 [label="gini = 0.0\nsamples = 1\nvalue = [1, 0]"] ;
182 -> 184 ;
185 [label="gini = 0.0\nsamples = 3\nvalue = [3, 0]"] ;
179 -> 185 ;
186 [label="gini = 0.0\nsamples = 2\nvalue = [0, 2]"] ;
176 -> 186 ;
187 [label="gini = 0.0\nsamples = 8\nvalue = [0, 8]"] ;
147 -> 187 ;
188 [label="Education <= 1.5\ngini = 0.482\nsamples = 979\nvalue = [583, 396]"] ;
0 -> 188 [labeldistance=2.5, labelangle=-45, headlabel="False"] ;
189 [label="CCAvg <= 6.633\ngini = 0.194\nsamples = 635\nvalue = [566, 69]"] ;
188 -> 189 ;
190 [label="CCAvg <= 6.55\ngini = 0.225\nsamples = 502\nvalue = [437, 65]"] ;
189 -> 190 ;
191 [label="CCAvg <= 4.05\ngini = 0.22\nsamples = 500\nvalue = [437, 63]"] ;
190 -> 191 ;
192 [label="Income <= 159.5\ngini = 0.177\nsamples = 346\nvalue = [312, 34]"] ;
191 -> 192 ;
193 [label="Income <= 146.5\ngini = 0.128\nsamples = 263\nvalue = [245, 18]"] ;
192 -> 193 ;
194 [label="CCAvg <= 2.65\ngini = 0.15\nsamples = 221\nvalue = [203, 18]"] ;
193 -> 194 ;
195 [label="Income <= 129.5\ngini = 0.194\nsamples = 138\nvalue = [123, 15]"] ;
194 -> 195 ;
196 [label="Income <= 118.5\ngini = 0.115\nsamples = 82\nvalue = [77, 5]"] ;
195 -> 196 ;
197 [label="gini = 0.0\nsamples = 20\nvalue = [20, 0]"] ;
196 -> 197 ;
198 [label="Income <= 126.5\ngini = 0.148\nsamples = 62\nvalue = [57, 5]"] ;
196 -> 198 ;
199 [label="Income <= 122.5\ngini = 0.19\nsamples = 47\nvalue = [42, 5]"] ;
198 -> 199 ;
200 [label="Income <= 119.5\ngini = 0.128\nsamples = 29\nvalue = [27, 2]"] ;
199 -> 200 ;
201 [label="CCAvg <= 1.75\ngini = 0.375\nsamples = 4\nvalue = [3, 1]"] ;
200 -> 201 ;
202 [label="gini = 0.0\nsamples = 2\nvalue = [2, 0]"] ;
201 -> 202 ;
203 [label="gini = 0.5\nsamples = 2\nvalue = [1, 1]"] ;
201 -> 203 ;
204 [label="CCAvg <= 0.25\ngini = 0.077\nsamples = 25\nvalue = [24, 1]"] ;
200 -> 204 ;
205 [label="CCAvg <= 0.1\ngini = 0.278\nsamples = 6\nvalue = [5, 1]"] ;
204 -> 205 ;
206 [label="gini = 0.0\nsamples = 4\nvalue = [4, 0]"] ;
205 -> 206 ;
207 [label="gini = 0.5\nsamples = 2\nvalue = [1, 1]"] ;
205 -> 207 ;
208 [label="gini = 0.0\nsamples = 19\nvalue = [19, 0]"] ;
204 -> 208 ;
209 [label="CCAvg <= 0.45\ngini = 0.278\nsamples = 18\nvalue = [15, 3]"] ;
199 -> 209 ;
210 [label="gini = 0.0\nsamples = 4\nvalue = [4, 0]"] ;
209 -> 210 ;
211 [label="CCAvg <= 1.6\ngini = 0.337\nsamples = 14\nvalue = [11, 3]"] ;
209 -> 211 ;
212 [label="CCAvg <= 1.05\ngini = 0.408\nsamples = 7\nvalue = [5, 2]"] ;
211 -> 212 ;
213 [label="Income <= 124.5\ngini = 0.32\nsamples = 5\nvalue = [4, 1]"] ;
212 -> 213 ;
214 [label="gini = 0.0\nsamples = 3\nvalue = [3, 0]"] ;
213 -> 214 ;
215 [label="gini = 0.5\nsamples = 2\nvalue = [1, 1]"] ;
213 -> 215 ;
216 [label="Income <= 124.0\ngini = 0.5\nsamples = 2\nvalue = [1, 1]"] ;
212 -> 216 ;
217 [label="gini = 0.0\nsamples = 1\nvalue = [0, 1]"] ;
216 -> 217 ;
218 [label="gini = 0.0\nsamples = 1\nvalue = [1, 0]"] ;
216 -> 218 ;
219 [label="CCAvg <= 2.3\ngini = 0.245\nsamples = 7\nvalue = [6, 1]"] ;
211 -> 219 ;
220 [label="gini = 0.0\nsamples = 3\nvalue = [3, 0]"] ;
219 -> 220 ;
221 [label="gini = 0.375\nsamples = 4\nvalue = [3, 1]"] ;
219 -> 221 ;
222 [label="gini = 0.0\nsamples = 15\nvalue = [15, 0]"] ;
198 -> 222 ;
223 [label="CCAvg <= 0.35\ngini = 0.293\nsamples = 56\nvalue = [46, 10]"] ;
195 -> 223 ;
224 [label="gini = 0.0\nsamples = 13\nvalue = [13, 0]"] ;
223 -> 224 ;
225 [label="CCAvg <= 0.45\ngini = 0.357\nsamples = 43\nvalue = [33, 10]"] ;
223 -> 225 ;
226 [label="gini = 0.0\nsamples = 1\nvalue = [0, 1]"] ;
225 -> 226 ;
227 [label="Income <= 134.5\ngini = 0.337\nsamples = 42\nvalue = [33, 9]"] ;
225 -> 227 ;
228 [label="Income <= 133.5\ngini = 0.473\nsamples = 13\nvalue = [8, 5]"] ;
227 -> 228 ;
229 [label="CCAvg <= 1.7\ngini = 0.444\nsamples = 12\nvalue = [8, 4]"] ;
228 -> 229 ;
230 [label="CCAvg <= 1.2\ngini = 0.346\nsamples = 9\nvalue = [7, 2]"] ;
229 -> 230 ;
231 [label="CCAvg <= 1.05\ngini = 0.408\nsamples = 7\nvalue = [5, 2]"] ;
230 -> 231 ;
232 [label="CCAvg <= 0.75\ngini = 0.278\nsamples = 6\nvalue = [5, 1]"] ;
231 -> 232 ;
233 [label="Income <= 131.5\ngini = 0.375\nsamples = 4\nvalue = [3, 1]"] ;
232 -> 233 ;
234 [label="Income <= 130.5\ngini = 0.5\nsamples = 2\nvalue = [1, 1]"] ;
233 -> 234 ;
235 [label="gini = 0.0\nsamples = 1\nvalue = [1, 0]"] ;
234 -> 235 ;
236 [label="gini = 0.0\nsamples = 1\nvalue = [0, 1]"] ;
234 -> 236 ;
237 [label="gini = 0.0\nsamples = 2\nvalue = [2, 0]"] ;
233 -> 237 ;
238 [label="gini = 0.0\nsamples = 2\nvalue = [2, 0]"] ;
232 -> 238 ;
239 [label="gini = 0.0\nsamples = 1\nvalue = [0, 1]"] ;
231 -> 239 ;
240 [label="gini = 0.0\nsamples = 2\nvalue = [2, 0]"] ;
230 -> 240 ;
241 [label="Income <= 132.5\ngini = 0.444\nsamples = 3\nvalue = [1, 2]"] ;
229 -> 241 ;
242 [label="gini = 0.0\nsamples = 1\nvalue = [0, 1]"] ;
241 -> 242 ;
243 [label="CCAvg <= 2.3\ngini = 0.5\nsamples = 2\nvalue = [1, 1]"] ;
241 -> 243 ;
244 [label="gini = 0.0\nsamples = 1\nvalue = [0, 1]"] ;
243 -> 244 ;
245 [label="gini = 0.0\nsamples = 1\nvalue = [1, 0]"] ;
243 -> 245 ;
246 [label="gini = 0.0\nsamples = 1\nvalue = [0, 1]"] ;
228 -> 246 ;
247 [label="CCAvg <= 0.75\ngini = 0.238\nsamples = 29\nvalue = [25, 4]"] ;
227 -> 247 ;
248 [label="CCAvg <= 0.65\ngini = 0.469\nsamples = 8\nvalue = [5, 3]"] ;
247 -> 248 ;
249 [label="CCAvg <= 0.55\ngini = 0.408\nsamples = 7\nvalue = [5, 2]"] ;
248 -> 249 ;
250 [label="Income <= 140.5\ngini = 0.48\nsamples = 5\nvalue = [3, 2]"] ;
249 -> 250 ;
251 [label="gini = 0.444\nsamples = 3\nvalue = [1, 2]"] ;
250 -> 251 ;
252 [label="gini = 0.0\nsamples = 2\nvalue = [2, 0]"] ;
250 -> 252 ;
253 [label="gini = 0.0\nsamples = 2\nvalue = [2, 0]"] ;
249 -> 253 ;
254 [label="gini = 0.0\nsamples = 1\nvalue = [0, 1]"] ;
248 -> 254 ;
255 [label="Income <= 144.5\ngini = 0.091\nsamples = 21\nvalue = [20, 1]"] ;
247 -> 255 ;
256 [label="gini = 0.0\nsamples = 16\nvalue = [16, 0]"] ;
255 -> 256 ;
257 [label="CCAvg <= 1.75\ngini = 0.32\nsamples = 5\nvalue = [4, 1]"] ;
255 -> 257 ;
258 [label="gini = 0.0\nsamples = 3\nvalue = [3, 0]"] ;
257 -> 258 ;
259 [label="CCAvg <= 2.15\ngini = 0.5\nsamples = 2\nvalue = [1, 1]"] ;
257 -> 259 ;
260 [label="gini = 0.0\nsamples = 1\nvalue = [0, 1]"] ;
259 -> 260 ;
261 [label="gini = 0.0\nsamples = 1\nvalue = [1, 0]"] ;
259 -> 261 ;
262 [label="Income <= 114.5\ngini = 0.07\nsamples = 83\nvalue = [80, 3]"] ;
194 -> 262 ;
263 [label="CCAvg <= 3.45\ngini = 0.5\nsamples = 2\nvalue = [1, 1]"] ;
262 -> 263 ;
264 [label="gini = 0.0\nsamples = 1\nvalue = [1, 0]"] ;
263 -> 264 ;
265 [label="gini = 0.0\nsamples = 1\nvalue = [0, 1]"] ;
263 -> 265 ;
266 [label="CCAvg <= 3.45\ngini = 0.048\nsamples = 81\nvalue = [79, 2]"] ;
262 -> 266 ;
267 [label="CCAvg <= 3.35\ngini = 0.081\nsamples = 47\nvalue = [45, 2]"] ;
266 -> 267 ;
268 [label="Income <= 122.5\ngini = 0.049\nsamples = 40\nvalue = [39, 1]"] ;
267 -> 268 ;
269 [label="Income <= 121.5\ngini = 0.153\nsamples = 12\nvalue = [11, 1]"] ;
268 -> 269 ;
270 [label="gini = 0.0\nsamples = 10\nvalue = [10, 0]"] ;
269 -> 270 ;
271 [label="CCAvg <= 3.05\ngini = 0.5\nsamples = 2\nvalue = [1, 1]"] ;
269 -> 271 ;
272 [label="gini = 0.0\nsamples = 1\nvalue = [0, 1]"] ;
271 -> 272 ;
273 [label="gini = 0.0\nsamples = 1\nvalue = [1, 0]"] ;
271 -> 273 ;
274 [label="gini = 0.0\nsamples = 28\nvalue = [28, 0]"] ;
268 -> 274 ;
275 [label="Income <= 135.0\ngini = 0.245\nsamples = 7\nvalue = [6, 1]"] ;
267 -> 275 ;
276 [label="gini = 0.0\nsamples = 4\nvalue = [4, 0]"] ;
275 -> 276 ;
277 [label="Income <= 140.5\ngini = 0.444\nsamples = 3\nvalue = [2, 1]"] ;
275 -> 277 ;
278 [label="gini = 0.5\nsamples = 2\nvalue = [1, 1]"] ;
277 -> 278 ;
279 [label="gini = 0.0\nsamples = 1\nvalue = [1, 0]"] ;
277 -> 279 ;
280 [label="gini = 0.0\nsamples = 34\nvalue = [34, 0]"] ;
266 -> 280 ;
281 [label="gini = 0.0\nsamples = 42\nvalue = [42, 0]"] ;
193 -> 281 ;
282 [label="CCAvg <= 3.35\ngini = 0.311\nsamples = 83\nvalue = [67, 16]"] ;
192 -> 282 ;
283 [label="CCAvg <= 1.55\ngini = 0.286\nsamples = 81\nvalue = [67, 14]"] ;
282 -> 283 ;
284 [label="CCAvg <= 0.1\ngini = 0.404\nsamples = 32\nvalue = [23, 9]"] ;
283 -> 284 ;
285 [label="gini = 0.0\nsamples = 6\nvalue = [6, 0]"] ;
284 -> 285 ;
286 [label="Income <= 185.5\ngini = 0.453\nsamples = 26\nvalue = [17, 9]"] ;
284 -> 286 ;
287 [label="CCAvg <= 0.3\ngini = 0.413\nsamples = 24\nvalue = [17, 7]"] ;
286 -> 287 ;
288 [label="gini = 0.0\nsamples = 1\nvalue = [0, 1]"] ;
287 -> 288 ;
289 [label="CCAvg <= 0.6\ngini = 0.386\nsamples = 23\nvalue = [17, 6]"] ;
287 -> 289 ;
290 [label="gini = 0.0\nsamples = 4\nvalue = [4, 0]"] ;
289 -> 290 ;
291 [label="CCAvg <= 0.85\ngini = 0.432\nsamples = 19\nvalue = [13, 6]"] ;
289 -> 291 ;
292 [label="gini = 0.0\nsamples = 2\nvalue = [0, 2]"] ;
291 -> 292 ;
293 [label="CCAvg <= 1.1\ngini = 0.36\nsamples = 17\nvalue = [13, 4]"] ;
291 -> 293 ;
294 [label="gini = 0.0\nsamples = 6\nvalue = [6, 0]"] ;
293 -> 294 ;
295 [label="CCAvg <= 1.25\ngini = 0.463\nsamples = 11\nvalue = [7, 4]"] ;
293 -> 295 ;
296 [label="gini = 0.0\nsamples = 1\nvalue = [0, 1]"] ;
295 -> 296 ;
297 [label="Income <= 166.5\ngini = 0.42\nsamples = 10\nvalue = [7, 3]"] ;
295 -> 297 ;
298 [label="CCAvg <= 1.35\ngini = 0.5\nsamples = 4\nvalue = [2, 2]"] ;
297 -> 298 ;
299 [label="gini = 0.444\nsamples = 3\nvalue = [2, 1]"] ;
298 -> 299 ;
300 [label="gini = 0.0\nsamples = 1\nvalue = [0, 1]"] ;
298 -> 300 ;
301 [label="Income <= 178.0\ngini = 0.278\nsamples = 6\nvalue = [5, 1]"] ;
297 -> 301 ;
302 [label="gini = 0.0\nsamples = 3\nvalue = [3, 0]"] ;
301 -> 302 ;
303 [label="Income <= 182.0\ngini = 0.444\nsamples = 3\nvalue = [2, 1]"] ;
301 -> 303 ;
304 [label="gini = 0.0\nsamples = 1\nvalue = [0, 1]"] ;
303 -> 304 ;
305 [label="gini = 0.0\nsamples = 2\nvalue = [2, 0]"] ;
303 -> 305 ;
306 [label="gini = 0.0\nsamples = 2\nvalue = [0, 2]"] ;
286 -> 306 ;
307 [label="Income <= 171.5\ngini = 0.183\nsamples = 49\nvalue = [44, 5]"] ;
283 -> 307 ;
308 [label="gini = 0.0\nsamples = 16\nvalue = [16, 0]"] ;
307 -> 308 ;
309 [label="Income <= 173.5\ngini = 0.257\nsamples = 33\nvalue = [28, 5]"] ;
307 -> 309 ;
310 [label="CCAvg <= 3.2\ngini = 0.444\nsamples = 3\nvalue = [1, 2]"] ;
309 -> 310 ;
311 [label="gini = 0.0\nsamples = 2\nvalue = [0, 2]"] ;
310 -> 311 ;
312 [label="gini = 0.0\nsamples = 1\nvalue = [1, 0]"] ;
310 -> 312 ;
313 [label="CCAvg <= 1.95\ngini = 0.18\nsamples = 30\nvalue = [27, 3]"] ;
309 -> 313 ;
314 [label="gini = 0.0\nsamples = 9\nvalue = [9, 0]"] ;
313 -> 314 ;
315 [label="CCAvg <= 2.75\ngini = 0.245\nsamples = 21\nvalue = [18, 3]"] ;
313 -> 315 ;
316 [label="Income <= 179.5\ngini = 0.444\nsamples = 3\nvalue = [1, 2]"] ;
315 -> 316 ;
317 [label="gini = 0.0\nsamples = 1\nvalue = [1, 0]"] ;
316 -> 317 ;
318 [label="gini = 0.0\nsamples = 2\nvalue = [0, 2]"] ;
316 -> 318 ;
319 [label="CCAvg <= 2.95\ngini = 0.105\nsamples = 18\nvalue = [17, 1]"] ;
315 -> 319 ;
320 [label="gini = 0.0\nsamples = 10\nvalue = [10, 0]"] ;
319 -> 320 ;
321 [label="Income <= 193.0\ngini = 0.219\nsamples = 8\nvalue = [7, 1]"] ;
319 -> 321 ;
322 [label="gini = 0.0\nsamples = 3\nvalue = [3, 0]"] ;
321 -> 322 ;
323 [label="Income <= 196.5\ngini = 0.32\nsamples = 5\nvalue = [4, 1]"] ;
321 -> 323 ;
324 [label="gini = 0.444\nsamples = 3\nvalue = [2, 1]"] ;
323 -> 324 ;
325 [label="gini = 0.0\nsamples = 2\nvalue = [2, 0]"] ;
323 -> 325 ;
326 [label="gini = 0.0\nsamples = 2\nvalue = [0, 2]"] ;
282 -> 326 ;
327 [label="Income <= 179.5\ngini = 0.306\nsamples = 154\nvalue = [125, 29]"] ;
191 -> 327 ;
328 [label="Income <= 134.5\ngini = 0.349\nsamples = 129\nvalue = [100, 29]"] ;
327 -> 328 ;
329 [label="CCAvg <= 6.4\ngini = 0.229\nsamples = 53\nvalue = [46, 7]"] ;
328 -> 329 ;
330 [label="Income <= 116.0\ngini = 0.204\nsamples = 52\nvalue = [46, 6]"] ;
329 -> 330 ;
331 [label="CCAvg <= 5.05\ngini = 0.5\nsamples = 2\nvalue = [1, 1]"] ;
330 -> 331 ;
332 [label="gini = 0.0\nsamples = 1\nvalue = [1, 0]"] ;
331 -> 332 ;
333 [label="gini = 0.0\nsamples = 1\nvalue = [0, 1]"] ;
331 -> 333 ;
334 [label="CCAvg <= 4.5\ngini = 0.18\nsamples = 50\nvalue = [45, 5]"] ;
330 -> 334 ;
335 [label="CCAvg <= 4.367\ngini = 0.375\nsamples = 8\nvalue = [6, 2]"] ;
334 -> 335 ;
336 [label="gini = 0.0\nsamples = 6\nvalue = [6, 0]"] ;
335 -> 336 ;
337 [label="gini = 0.0\nsamples = 2\nvalue = [0, 2]"] ;
335 -> 337 ;
338 [label="CCAvg <= 5.25\ngini = 0.133\nsamples = 42\nvalue = [39, 3]"] ;
334 -> 338 ;
339 [label="gini = 0.0\nsamples = 17\nvalue = [17, 0]"] ;
338 -> 339 ;
340 [label="CCAvg <= 5.35\ngini = 0.211\nsamples = 25\nvalue = [22, 3]"] ;
338 -> 340 ;
341 [label="gini = 0.0\nsamples = 1\nvalue = [0, 1]"] ;
340 -> 341 ;
342 [label="Income <= 124.0\ngini = 0.153\nsamples = 24\nvalue = [22, 2]"] ;
340 -> 342 ;
343 [label="Income <= 122.5\ngini = 0.278\nsamples = 12\nvalue = [10, 2]"] ;
342 -> 343 ;
344 [label="CCAvg <= 5.55\ngini = 0.18\nsamples = 10\nvalue = [9, 1]"] ;
343 -> 344 ;
345 [label="Income <= 119.5\ngini = 0.375\nsamples = 4\nvalue = [3, 1]"] ;
344 -> 345 ;
346 [label="gini = 0.0\nsamples = 2\nvalue = [2, 0]"] ;
345 -> 346 ;
347 [label="Income <= 120.5\ngini = 0.5\nsamples = 2\nvalue = [1, 1]"] ;
345 -> 347 ;
348 [label="gini = 0.0\nsamples = 1\nvalue = [0, 1]"] ;
347 -> 348 ;
349 [label="gini = 0.0\nsamples = 1\nvalue = [1, 0]"] ;
347 -> 349 ;
350 [label="gini = 0.0\nsamples = 6\nvalue = [6, 0]"] ;
344 -> 350 ;
351 [label="CCAvg <= 5.65\ngini = 0.5\nsamples = 2\nvalue = [1, 1]"] ;
343 -> 351 ;
352 [label="gini = 0.0\nsamples = 1\nvalue = [1, 0]"] ;
351 -> 352 ;
353 [label="gini = 0.0\nsamples = 1\nvalue = [0, 1]"] ;
351 -> 353 ;
354 [label="gini = 0.0\nsamples = 12\nvalue = [12, 0]"] ;
342 -> 354 ;
355 [label="gini = 0.0\nsamples = 1\nvalue = [0, 1]"] ;
329 -> 355 ;
356 [label="Income <= 136.5\ngini = 0.411\nsamples = 76\nvalue = [54, 22]"] ;
328 -> 356 ;
357 [label="gini = 0.0\nsamples = 2\nvalue = [0, 2]"] ;
356 -> 357 ;
358 [label="CCAvg <= 5.8\ngini = 0.394\nsamples = 74\nvalue = [54, 20]"] ;
356 -> 358 ;
359 [label="CCAvg <= 5.2\ngini = 0.44\nsamples = 49\nvalue = [33, 16]"] ;
358 -> 359 ;
360 [label="Income <= 167.5\ngini = 0.337\nsamples = 42\nvalue = [33, 9]"] ;
359 -> 360 ;
361 [label="Income <= 141.5\ngini = 0.219\nsamples = 32\nvalue = [28, 4]"] ;
360 -> 361 ;
362 [label="gini = 0.0\nsamples = 8\nvalue = [8, 0]"] ;
361 -> 362 ;
363 [label="Income <= 142.5\ngini = 0.278\nsamples = 24\nvalue = [20, 4]"] ;
361 -> 363 ;
364 [label="gini = 0.0\nsamples = 1\nvalue = [0, 1]"] ;
363 -> 364 ;
365 [label="Income <= 146.5\ngini = 0.227\nsamples = 23\nvalue = [20, 3]"] ;
363 -> 365 ;
366 [label="gini = 0.0\nsamples = 5\nvalue = [5, 0]"] ;
365 -> 366 ;
367 [label="Income <= 148.5\ngini = 0.278\nsamples = 18\nvalue = [15, 3]"] ;
365 -> 367 ;
368 [label="CCAvg <= 4.4\ngini = 0.5\nsamples = 2\nvalue = [1, 1]"] ;
367 -> 368 ;
369 [label="gini = 0.0\nsamples = 1\nvalue = [0, 1]"] ;
368 -> 369 ;
370 [label="gini = 0.0\nsamples = 1\nvalue = [1, 0]"] ;
368 -> 370 ;
371 [label="Income <= 161.5\ngini = 0.219\nsamples = 16\nvalue = [14, 2]"] ;
367 -> 371 ;
372 [label="CCAvg <= 4.8\ngini = 0.298\nsamples = 11\nvalue = [9, 2]"] ;
371 -> 372 ;
373 [label="Income <= 160.5\ngini = 0.198\nsamples = 9\nvalue = [8, 1]"] ;
372 -> 373 ;
374 [label="gini = 0.0\nsamples = 6\nvalue = [6, 0]"] ;
373 -> 374 ;
375 [label="CCAvg <= 4.2\ngini = 0.444\nsamples = 3\nvalue = [2, 1]"] ;
373 -> 375 ;
376 [label="gini = 0.0\nsamples = 2\nvalue = [2, 0]"] ;
375 -> 376 ;
377 [label="gini = 0.0\nsamples = 1\nvalue = [0, 1]"] ;
375 -> 377 ;
378 [label="CCAvg <= 4.95\ngini = 0.5\nsamples = 2\nvalue = [1, 1]"] ;
372 -> 378 ;
379 [label="gini = 0.0\nsamples = 1\nvalue = [0, 1]"] ;
378 -> 379 ;
380 [label="gini = 0.0\nsamples = 1\nvalue = [1, 0]"] ;
378 -> 380 ;
381 [label="gini = 0.0\nsamples = 5\nvalue = [5, 0]"] ;
371 -> 381 ;
382 [label="Income <= 173.0\ngini = 0.5\nsamples = 10\nvalue = [5, 5]"] ;
360 -> 382 ;
383 [label="CCAvg <= 4.45\ngini = 0.32\nsamples = 5\nvalue = [1, 4]"] ;
382 -> 383 ;
384 [label="gini = 0.0\nsamples = 3\nvalue = [0, 3]"] ;
383 -> 384 ;
385 [label="CCAvg <= 4.6\ngini = 0.5\nsamples = 2\nvalue = [1, 1]"] ;
383 -> 385 ;
386 [label="gini = 0.0\nsamples = 1\nvalue = [1, 0]"] ;
385 -> 386 ;
387 [label="gini = 0.0\nsamples = 1\nvalue = [0, 1]"] ;
385 -> 387 ;
388 [label="CCAvg <= 4.8\ngini = 0.32\nsamples = 5\nvalue = [4, 1]"] ;
382 -> 388 ;
389 [label="gini = 0.0\nsamples = 4\nvalue = [4, 0]"] ;
388 -> 389 ;
390 [label="gini = 0.0\nsamples = 1\nvalue = [0, 1]"] ;
388 -> 390 ;
391 [label="gini = 0.0\nsamples = 7\nvalue = [0, 7]"] ;
359 -> 391 ;
392 [label="CCAvg <= 6.05\ngini = 0.269\nsamples = 25\nvalue = [21, 4]"] ;
358 -> 392 ;
393 [label="gini = 0.0\nsamples = 9\nvalue = [9, 0]"] ;
392 -> 393 ;
394 [label="CCAvg <= 6.45\ngini = 0.375\nsamples = 16\nvalue = [12, 4]"] ;
392 -> 394 ;
395 [label="CCAvg <= 6.367\ngini = 0.444\nsamples = 12\nvalue = [8, 4]"] ;
394 -> 395 ;
396 [label="Income <= 156.5\ngini = 0.397\nsamples = 11\nvalue = [8, 3]"] ;
395 -> 396 ;
397 [label="Income <= 149.5\ngini = 0.32\nsamples = 10\nvalue = [8, 2]"] ;
396 -> 397 ;
398 [label="Income <= 140.5\ngini = 0.408\nsamples = 7\nvalue = [5, 2]"] ;
397 -> 398 ;
399 [label="gini = 0.0\nsamples = 2\nvalue = [2, 0]"] ;
398 -> 399 ;
400 [label="Income <= 142.5\ngini = 0.48\nsamples = 5\nvalue = [3, 2]"] ;
398 -> 400 ;
401 [label="gini = 0.0\nsamples = 1\nvalue = [0, 1]"] ;
400 -> 401 ;
402 [label="Income <= 147.0\ngini = 0.375\nsamples = 4\nvalue = [3, 1]"] ;
400 -> 402 ;
403 [label="gini = 0.0\nsamples = 2\nvalue = [2, 0]"] ;
402 -> 403 ;
404 [label="CCAvg <= 6.217\ngini = 0.5\nsamples = 2\nvalue = [1, 1]"] ;
402 -> 404 ;
405 [label="gini = 0.0\nsamples = 1\nvalue = [0, 1]"] ;
404 -> 405 ;
406 [label="gini = 0.0\nsamples = 1\nvalue = [1, 0]"] ;
404 -> 406 ;
407 [label="gini = 0.0\nsamples = 3\nvalue = [3, 0]"] ;
397 -> 407 ;
408 [label="gini = 0.0\nsamples = 1\nvalue = [0, 1]"] ;
396 -> 408 ;
409 [label="gini = 0.0\nsamples = 1\nvalue = [0, 1]"] ;
395 -> 409 ;
410 [label="gini = 0.0\nsamples = 4\nvalue = [4, 0]"] ;
394 -> 410 ;
411 [label="gini = 0.0\nsamples = 25\nvalue = [25, 0]"] ;
327 -> 411 ;
412 [label="gini = 0.0\nsamples = 2\nvalue = [0, 2]"] ;
190 -> 412 ;
413 [label="Income <= 176.5\ngini = 0.058\nsamples = 133\nvalue = [129, 4]"] ;
189 -> 413 ;
414 [label="CCAvg <= 6.95\ngini = 0.02\nsamples = 99\nvalue = [98, 1]"] ;
413 -> 414 ;
415 [label="CCAvg <= 6.85\ngini = 0.077\nsamples = 25\nvalue = [24, 1]"] ;
414 -> 415 ;
416 [label="gini = 0.0\nsamples = 15\nvalue = [15, 0]"] ;
415 -> 416 ;
417 [label="Income <= 143.0\ngini = 0.18\nsamples = 10\nvalue = [9, 1]"] ;
415 -> 417 ;
418 [label="gini = 0.0\nsamples = 5\nvalue = [5, 0]"] ;
417 -> 418 ;
419 [label="Income <= 147.5\ngini = 0.32\nsamples = 5\nvalue = [4, 1]"] ;
417 -> 419 ;
420 [label="gini = 0.5\nsamples = 2\nvalue = [1, 1]"] ;
419 -> 420 ;
421 [label="gini = 0.0\nsamples = 3\nvalue = [3, 0]"] ;
419 -> 421 ;
422 [label="gini = 0.0\nsamples = 74\nvalue = [74, 0]"] ;
414 -> 422 ;
423 [label="Income <= 178.5\ngini = 0.161\nsamples = 34\nvalue = [31, 3]"] ;
413 -> 423 ;
424 [label="CCAvg <= 7.6\ngini = 0.5\nsamples = 2\nvalue = [1, 1]"] ;
423 -> 424 ;
425 [label="gini = 0.0\nsamples = 1\nvalue = [1, 0]"] ;
424 -> 425 ;
426 [label="gini = 0.0\nsamples = 1\nvalue = [0, 1]"] ;
424 -> 426 ;
427 [label="CCAvg <= 8.05\ngini = 0.117\nsamples = 32\nvalue = [30, 2]"] ;
423 -> 427 ;
428 [label="CCAvg <= 7.8\ngini = 0.26\nsamples = 13\nvalue = [11, 2]"] ;
427 -> 428 ;
429 [label="CCAvg <= 7.1\ngini = 0.153\nsamples = 12\nvalue = [11, 1]"] ;
428 -> 429 ;
430 [label="gini = 0.0\nsamples = 8\nvalue = [8, 0]"] ;
429 -> 430 ;
431 [label="CCAvg <= 7.55\ngini = 0.375\nsamples = 4\nvalue = [3, 1]"] ;
429 -> 431 ;
432 [label="gini = 0.0\nsamples = 1\nvalue = [0, 1]"] ;
431 -> 432 ;
433 [label="gini = 0.0\nsamples = 3\nvalue = [3, 0]"] ;
431 -> 433 ;
434 [label="gini = 0.0\nsamples = 1\nvalue = [0, 1]"] ;
428 -> 434 ;
435 [label="gini = 0.0\nsamples = 19\nvalue = [19, 0]"] ;
427 -> 435 ;
436 [label="Income <= 116.5\ngini = 0.094\nsamples = 344\nvalue = [17, 327]"] ;
188 -> 436 ;
437 [label="CCAvg <= 2.15\ngini = 0.491\nsamples = 30\nvalue = [17, 13]"] ;
436 -> 437 ;
438 [label="CCAvg <= 0.55\ngini = 0.26\nsamples = 13\nvalue = [11, 2]"] ;
437 -> 438 ;
439 [label="gini = 0.0\nsamples = 1\nvalue = [0, 1]"] ;
438 -> 439 ;
440 [label="Income <= 114.5\ngini = 0.153\nsamples = 12\nvalue = [11, 1]"] ;
438 -> 440 ;
441 [label="gini = 0.0\nsamples = 7\nvalue = [7, 0]"] ;
440 -> 441 ;
442 [label="Education <= 2.5\ngini = 0.32\nsamples = 5\nvalue = [4, 1]"] ;
440 -> 442 ;
443 [label="gini = 0.0\nsamples = 2\nvalue = [2, 0]"] ;
442 -> 443 ;
444 [label="CCAvg <= 1.1\ngini = 0.444\nsamples = 3\nvalue = [2, 1]"] ;
442 -> 444 ;
445 [label="gini = 0.0\nsamples = 1\nvalue = [1, 0]"] ;
444 -> 445 ;
446 [label="CCAvg <= 1.35\ngini = 0.5\nsamples = 2\nvalue = [1, 1]"] ;
444 -> 446 ;
447 [label="gini = 0.0\nsamples = 1\nvalue = [0, 1]"] ;
446 -> 447 ;
448 [label="gini = 0.0\nsamples = 1\nvalue = [1, 0]"] ;
446 -> 448 ;
449 [label="CCAvg <= 4.0\ngini = 0.457\nsamples = 17\nvalue = [6, 11]"] ;
437 -> 449 ;
450 [label="CCAvg <= 3.35\ngini = 0.497\nsamples = 13\nvalue = [6, 7]"] ;
449 -> 450 ;
451 [label="CCAvg <= 2.8\ngini = 0.444\nsamples = 9\nvalue = [3, 6]"] ;
450 -> 451 ;
452 [label="CCAvg <= 2.3\ngini = 0.5\nsamples = 6\nvalue = [3, 3]"] ;
451 -> 452 ;
453 [label="gini = 0.0\nsamples = 1\nvalue = [0, 1]"] ;
452 -> 453 ;
454 [label="Education <= 2.5\ngini = 0.48\nsamples = 5\nvalue = [3, 2]"] ;
452 -> 454 ;
455 [label="gini = 0.0\nsamples = 2\nvalue = [2, 0]"] ;
454 -> 455 ;
456 [label="CCAvg <= 2.45\ngini = 0.444\nsamples = 3\nvalue = [1, 2]"] ;
454 -> 456 ;
457 [label="gini = 0.5\nsamples = 2\nvalue = [1, 1]"] ;
456 -> 457 ;
458 [label="gini = 0.0\nsamples = 1\nvalue = [0, 1]"] ;
456 -> 458 ;
459 [label="gini = 0.0\nsamples = 3\nvalue = [0, 3]"] ;
451 -> 459 ;
460 [label="CCAvg <= 3.6\ngini = 0.375\nsamples = 4\nvalue = [3, 1]"] ;
450 -> 460 ;
461 [label="gini = 0.0\nsamples = 2\nvalue = [2, 0]"] ;
460 -> 461 ;
462 [label="Education <= 2.5\ngini = 0.5\nsamples = 2\nvalue = [1, 1]"] ;
460 -> 462 ;
463 [label="gini = 0.0\nsamples = 1\nvalue = [0, 1]"] ;
462 -> 463 ;
464 [label="gini = 0.0\nsamples = 1\nvalue = [1, 0]"] ;
462 -> 464 ;
465 [label="gini = 0.0\nsamples = 4\nvalue = [0, 4]"] ;
449 -> 465 ;
466 [label="gini = 0.0\nsamples = 314\nvalue = [0, 314]"] ;
436 -> 466 ;
}